## LambdaMART
## No. of trees = 1000
## No. of leaves = 10
## No. of threshold candidates = 256
## Learning rate = 0.1
## Stop early = 100

<ensemble>
	<tree id="1" weight="0.1">
		<split>
			<feature> 1 </feature>
			<threshold> 13.90629 </threshold>
			<split pos="left">
				<output> -1.2667008638381958 </output>
			</split>
			<split pos="right">
				<feature> 4 </feature>
				<threshold> 6.086386 </threshold>
				<split pos="left">
					<output> 0.549909770488739 </output>
				</split>
				<split pos="right">
					<feature> 1 </feature>
					<threshold> 14.2348585 </threshold>
					<split pos="left">
						<feature> 1 </feature>
						<threshold> 14.015813 </threshold>
						<split pos="left">
							<output> 1.8252966403961182 </output>
						</split>
						<split pos="right">
							<feature> 4 </feature>
							<threshold> 7.3348756 </threshold>
							<split pos="left">
								<output> 2.0 </output>
							</split>
							<split pos="right">
								<output> 2.0 </output>
							</split>
						</split>
					</split>
					<split pos="right">
						<feature> 1 </feature>
						<threshold> 15.220564 </threshold>
						<split pos="left">
							<output> 2.0 </output>
						</split>
						<split pos="right">
							<feature> 1 </feature>
							<threshold> 15.768178 </threshold>
							<split pos="left">
								<feature> 4 </feature>
								<threshold> 12.797017 </threshold>
								<split pos="left">
									<output> 2.0 </output>
								</split>
								<split pos="right">
									<output> 2.0 </output>
								</split>
							</split>
							<split pos="right">
								<feature> 1 </feature>
								<threshold> 18.725317 </threshold>
								<split pos="left">
									<output> 1.9258302450180054 </output>
								</split>
								<split pos="right">
									<output> 2.0 </output>
								</split>
							</split>
						</split>
					</split>
				</split>
			</split>
		</split>
	</tree>
	<tree id="2" weight="0.1">
		<split>
			<feature> 1 </feature>
			<threshold> 13.90629 </threshold>
			<split pos="left">
				<feature> 4 </feature>
				<threshold> 21.692505 </threshold>
				<split pos="left">
					<output> -1.1807363033294678 </output>
				</split>
				<split pos="right">
					<output> 2.0019166469573975 </output>
				</split>
			</split>
			<split pos="right">
				<feature> 4 </feature>
				<threshold> 7.646998 </threshold>
				<split pos="left">
					<output> 0.9438312649726868 </output>
				</split>
				<split pos="right">
					<feature> 1 </feature>
					<threshold> 14.2348585 </threshold>
					<split pos="left">
						<feature> 1 </feature>
						<threshold> 14.015813 </threshold>
						<split pos="left">
							<output> 1.555121898651123 </output>
						</split>
						<split pos="right">
							<feature> 1 </feature>
							<threshold> 14.125336 </threshold>
							<split pos="left">
								<output> 1.7214316129684448 </output>
							</split>
							<split pos="right">
								<output> 1.7213215827941895 </output>
							</split>
						</split>
					</split>
					<split pos="right">
						<feature> 1 </feature>
						<threshold> 15.220564 </threshold>
						<split pos="left">
							<output> 1.7213215827941895 </output>
						</split>
						<split pos="right">
							<feature> 1 </feature>
							<threshold> 15.768178 </threshold>
							<split pos="left">
								<feature> 4 </feature>
								<threshold> 12.797017 </threshold>
								<split pos="left">
									<output> 1.7225784063339233 </output>
								</split>
								<split pos="right">
									<output> 1.7213215827941895 </output>
								</split>
							</split>
							<split pos="right">
								<output> 1.7071110010147095 </output>
							</split>
						</split>
					</split>
				</split>
			</split>
		</split>
	</tree>
	<tree id="3" weight="0.1">
		<split>
			<feature> 1 </feature>
			<threshold> 13.90629 </threshold>
			<split pos="left">
				<feature> 4 </feature>
				<threshold> 21.692505 </threshold>
				<split pos="left">
					<output> -1.0863834619522095 </output>
				</split>
				<split pos="right">
					<feature> 4 </feature>
					<threshold> 22.004627 </threshold>
					<split pos="left">
						<output> 1.7274097204208374 </output>
					</split>
					<split pos="right">
						<output> 1.7280794382095337 </output>
					</split>
				</split>
			</split>
			<split pos="right">
				<feature> 4 </feature>
				<threshold> 4.213652 </threshold>
				<split pos="left">
					<output> -1.6080886125564575 </output>
				</split>
				<split pos="right">
					<feature> 1 </feature>
					<threshold> 14.2348585 </threshold>
					<split pos="left">
						<feature> 1 </feature>
						<threshold> 14.015813 </threshold>
						<split pos="left">
							<output> 1.4933140277862549 </output>
						</split>
						<split pos="right">
							<output> 1.5397615432739258 </output>
						</split>
					</split>
					<split pos="right">
						<feature> 1 </feature>
						<threshold> 15.768178 </threshold>
						<split pos="left">
							<feature> 1 </feature>
							<threshold> 15.658655 </threshold>
							<split pos="left">
								<output> 1.540005087852478 </output>
							</split>
							<split pos="right">
								<output> 1.5396276712417603 </output>
							</split>
						</split>
						<split pos="right">
							<feature> 1 </feature>
							<threshold> 18.725317 </threshold>
							<split pos="left">
								<output> 1.48570716381073 </output>
							</split>
							<split pos="right">
								<output> 1.5181902647018433 </output>
							</split>
						</split>
					</split>
				</split>
			</split>
		</split>
	</tree>
	<tree id="4" weight="0.1">
		<split>
			<feature> 1 </feature>
			<threshold> 13.90629 </threshold>
			<split pos="left">
				<feature> 4 </feature>
				<threshold> 21.692505 </threshold>
				<split pos="left">
					<feature> 4 </feature>
					<threshold> 2.9651628 </threshold>
					<split pos="left">
						<output> -1.5290440320968628 </output>
					</split>
					<split pos="right">
						<output> 0.47349363565444946 </output>
					</split>
				</split>
				<split pos="right">
					<feature> 4 </feature>
					<threshold> 22.004627 </threshold>
					<split pos="left">
						<output> 1.549006700515747 </output>
					</split>
					<split pos="right">
						<output> 1.550000786781311 </output>
					</split>
				</split>
			</split>
			<split pos="right">
				<feature> 4 </feature>
				<threshold> 4.213652 </threshold>
				<split pos="left">
					<output> -1.4411877393722534 </output>
				</split>
				<split pos="right">
					<feature> 1 </feature>
					<threshold> 14.2348585 </threshold>
					<split pos="left">
						<output> 1.404965877532959 </output>
					</split>
					<split pos="right">
						<feature> 1 </feature>
						<threshold> 15.768178 </threshold>
						<split pos="left">
							<feature> 1 </feature>
							<threshold> 15.658655 </threshold>
							<split pos="left">
								<output> 1.4152766466140747 </output>
							</split>
							<split pos="right">
								<output> 1.4149998426437378 </output>
							</split>
						</split>
						<split pos="right">
							<feature> 1 </feature>
							<threshold> 18.725317 </threshold>
							<split pos="left">
								<output> 1.356096863746643 </output>
							</split>
							<split pos="right">
								<output> 1.3900821208953857 </output>
							</split>
						</split>
					</split>
				</split>
			</split>
		</split>
	</tree>
	<tree id="5" weight="0.1">
		<split>
			<feature> 1 </feature>
			<threshold> 13.90629 </threshold>
			<split pos="left">
				<feature> 4 </feature>
				<threshold> 21.692505 </threshold>
				<split pos="left">
					<feature> 4 </feature>
					<threshold> 6.086386 </threshold>
					<split pos="left">
						<output> -1.2516241073608398 </output>
					</split>
					<split pos="right">
						<feature> 1 </feature>
						<threshold> 11.058697 </threshold>
						<split pos="left">
							<feature> 4 </feature>
							<threshold> 19.66371 </threshold>
							<split pos="left">
								<output> 1.0481748580932617 </output>
							</split>
							<split pos="right">
								<output> 1.7938679456710815 </output>
							</split>
						</split>
						<split pos="right">
							<output> 1.6434229612350464 </output>
						</split>
					</split>
				</split>
				<split pos="right">
					<output> 1.418341875076294 </output>
				</split>
			</split>
			<split pos="right">
				<feature> 4 </feature>
				<threshold> 3.9015298 </threshold>
				<split pos="left">
					<output> -2.083533763885498 </output>
				</split>
				<split pos="right">
					<feature> 1 </feature>
					<threshold> 14.2348585 </threshold>
					<split pos="left">
						<output> 1.3062067031860352 </output>
					</split>
					<split pos="right">
						<feature> 1 </feature>
						<threshold> 18.725317 </threshold>
						<split pos="left">
							<feature> 4 </feature>
							<threshold> 11.080344 </threshold>
							<split pos="left">
								<output> 1.210818886756897 </output>
							</split>
							<split pos="right">
								<output> 1.3195688724517822 </output>
							</split>
						</split>
						<split pos="right">
							<output> 1.2980483770370483 </output>
						</split>
					</split>
				</split>
			</split>
		</split>
	</tree>
	<tree id="6" weight="0.1">
		<split>
			<feature> 1 </feature>
			<threshold> 13.90629 </threshold>
			<split pos="left">
				<feature> 4 </feature>
				<threshold> 19.66371 </threshold>
				<split pos="left">
					<feature> 4 </feature>
					<threshold> 6.086386 </threshold>
					<split pos="left">
						<output> -1.343597412109375 </output>
					</split>
					<split pos="right">
						<feature> 1 </feature>
						<threshold> 8.430149 </threshold>
						<split pos="left">
							<output> 0.8683499693870544 </output>
						</split>
						<split pos="right">
							<feature> 4 </feature>
							<threshold> 15.293996 </threshold>
							<split pos="left">
								<feature> 4 </feature>
								<threshold> 8.115182 </threshold>
								<split pos="left">
									<output> 1.5108733177185059 </output>
								</split>
								<split pos="right">
									<output> 1.3439476490020752 </output>
								</split>
							</split>
							<split pos="right">
								<output> 1.6276626586914062 </output>
							</split>
						</split>
					</split>
				</split>
				<split pos="right">
					<output> 1.3346871137619019 </output>
				</split>
			</split>
			<split pos="right">
				<feature> 4 </feature>
				<threshold> 3.9015298 </threshold>
				<split pos="left">
					<output> -1.4975887537002563 </output>
				</split>
				<split pos="right">
					<feature> 1 </feature>
					<threshold> 14.2348585 </threshold>
					<split pos="left">
						<output> 1.2345277070999146 </output>
					</split>
					<split pos="right">
						<feature> 4 </feature>
						<threshold> 11.236405 </threshold>
						<split pos="left">
							<output> 1.1388828754425049 </output>
						</split>
						<split pos="right">
							<output> 1.2504483461380005 </output>
						</split>
					</split>
				</split>
			</split>
		</split>
	</tree>
	<tree id="7" weight="0.1">
		<split>
			<feature> 1 </feature>
			<threshold> 13.90629 </threshold>
			<split pos="left">
				<feature> 4 </feature>
				<threshold> 19.66371 </threshold>
				<split pos="left">
					<feature> 4 </feature>
					<threshold> 6.086386 </threshold>
					<split pos="left">
						<output> -1.2440330982208252 </output>
					</split>
					<split pos="right">
						<feature> 1 </feature>
						<threshold> 8.430149 </threshold>
						<split pos="left">
							<output> 0.761836051940918 </output>
						</split>
						<split pos="right">
							<feature> 4 </feature>
							<threshold> 15.293996 </threshold>
							<split pos="left">
								<feature> 4 </feature>
								<threshold> 8.115182 </threshold>
								<split pos="left">
									<output> 1.2713228464126587 </output>
								</split>
								<split pos="right">
									<output> 1.1717891693115234 </output>
								</split>
							</split>
							<split pos="right">
								<output> 1.4726617336273193 </output>
							</split>
						</split>
					</split>
				</split>
				<split pos="right">
					<output> 1.2382538318634033 </output>
				</split>
			</split>
			<split pos="right">
				<feature> 4 </feature>
				<threshold> 3.9015298 </threshold>
				<split pos="left">
					<output> -1.3820436000823975 </output>
				</split>
				<split pos="right">
					<feature> 1 </feature>
					<threshold> 14.2348585 </threshold>
					<split pos="left">
						<output> 1.1772898435592651 </output>
					</split>
					<split pos="right">
						<feature> 4 </feature>
						<threshold> 11.236405 </threshold>
						<split pos="left">
							<output> 1.0586543083190918 </output>
						</split>
						<split pos="right">
							<output> 1.1962738037109375 </output>
						</split>
					</split>
				</split>
			</split>
		</split>
	</tree>
	<tree id="8" weight="0.1">
		<split>
			<feature> 1 </feature>
			<threshold> 13.90629 </threshold>
			<split pos="left">
				<feature> 4 </feature>
				<threshold> 21.06826 </threshold>
				<split pos="left">
					<feature> 4 </feature>
					<threshold> 6.086386 </threshold>
					<split pos="left">
						<output> -1.1743606328964233 </output>
					</split>
					<split pos="right">
						<feature> 1 </feature>
						<threshold> 8.430149 </threshold>
						<split pos="left">
							<output> 0.7123023271560669 </output>
						</split>
						<split pos="right">
							<feature> 4 </feature>
							<threshold> 15.293996 </threshold>
							<split pos="left">
								<feature> 4 </feature>
								<threshold> 8.115182 </threshold>
								<split pos="left">
									<output> 1.1450014114379883 </output>
								</split>
								<split pos="right">
									<output> 1.053232192993164 </output>
								</split>
							</split>
							<split pos="right">
								<output> 1.220664381980896 </output>
							</split>
						</split>
					</split>
				</split>
				<split pos="right">
					<output> 1.2110421657562256 </output>
				</split>
			</split>
			<split pos="right">
				<feature> 4 </feature>
				<threshold> 3.9015298 </threshold>
				<split pos="left">
					<output> -1.300167202949524 </output>
				</split>
				<split pos="right">
					<feature> 1 </feature>
					<threshold> 14.2348585 </threshold>
					<split pos="left">
						<output> 1.1344470977783203 </output>
					</split>
					<split pos="right">
						<feature> 4 </feature>
						<threshold> 11.236405 </threshold>
						<split pos="left">
							<output> 1.0344613790512085 </output>
						</split>
						<split pos="right">
							<output> 1.1569875478744507 </output>
						</split>
					</split>
				</split>
			</split>
		</split>
	</tree>
	<tree id="9" weight="0.1">
		<split>
			<feature> 1 </feature>
			<threshold> 13.90629 </threshold>
			<split pos="left">
				<feature> 4 </feature>
				<threshold> 21.06826 </threshold>
				<split pos="left">
					<feature> 4 </feature>
					<threshold> 6.086386 </threshold>
					<split pos="left">
						<output> -1.115708589553833 </output>
					</split>
					<split pos="right">
						<feature> 1 </feature>
						<threshold> 8.430149 </threshold>
						<split pos="left">
							<feature> 4 </feature>
							<threshold> 19.66371 </threshold>
							<split pos="left">
								<output> 0.55992591381073 </output>
							</split>
							<split pos="right">
								<output> 1.3057050704956055 </output>
							</split>
						</split>
						<split pos="right">
							<feature> 4 </feature>
							<threshold> 15.293996 </threshold>
							<split pos="left">
								<feature> 4 </feature>
								<threshold> 8.115182 </threshold>
								<split pos="left">
									<output> 1.042462944984436 </output>
								</split>
								<split pos="right">
									<output> 0.9511978626251221 </output>
								</split>
							</split>
							<split pos="right">
								<output> 1.1313631534576416 </output>
							</split>
						</split>
					</split>
				</split>
				<split pos="right">
					<output> 1.172474980354309 </output>
				</split>
			</split>
			<split pos="right">
				<feature> 4 </feature>
				<threshold> 3.9015298 </threshold>
				<split pos="left">
					<output> -1.2393280267715454 </output>
				</split>
				<split pos="right">
					<feature> 1 </feature>
					<threshold> 14.2348585 </threshold>
					<split pos="left">
						<output> 1.101096510887146 </output>
					</split>
					<split pos="right">
						<output> 1.093455195426941 </output>
					</split>
				</split>
			</split>
		</split>
	</tree>
	<tree id="10" weight="0.1">
		<split>
			<feature> 1 </feature>
			<threshold> 13.90629 </threshold>
			<split pos="left">
				<feature> 4 </feature>
				<threshold> 21.06826 </threshold>
				<split pos="left">
					<feature> 4 </feature>
					<threshold> 6.086386 </threshold>
					<split pos="left">
						<output> -1.0655494928359985 </output>
					</split>
					<split pos="right">
						<feature> 1 </feature>
						<threshold> 8.430149 </threshold>
						<split pos="left">
							<feature> 4 </feature>
							<threshold> 19.66371 </threshold>
							<split pos="left">
								<output> 0.48812612891197205 </output>
							</split>
							<split pos="right">
								<output> 1.2400493621826172 </output>
							</split>
						</split>
						<split pos="right">
							<feature> 4 </feature>
							<threshold> 15.293996 </threshold>
							<split pos="left">
								<feature> 4 </feature>
								<threshold> 8.115182 </threshold>
								<split pos="left">
									<output> 0.9540920257568359 </output>
								</split>
								<split pos="right">
									<output> 0.8677549362182617 </output>
								</split>
							</split>
							<split pos="right">
								<output> 1.0549347400665283 </output>
							</split>
						</split>
					</split>
				</split>
				<split pos="right">
					<output> 1.1436136960983276 </output>
				</split>
			</split>
			<split pos="right">
				<feature> 4 </feature>
				<threshold> 3.9015298 </threshold>
				<split pos="left">
					<output> -1.1926051378250122 </output>
				</split>
				<split pos="right">
					<feature> 1 </feature>
					<threshold> 14.2348585 </threshold>
					<split pos="left">
						<output> 1.0740010738372803 </output>
					</split>
					<split pos="right">
						<output> 1.0638011693954468 </output>
					</split>
				</split>
			</split>
		</split>
	</tree>
	<tree id="11" weight="0.1">
		<split>
			<feature> 1 </feature>
			<threshold> 13.90629 </threshold>
			<split pos="left">
				<feature> 4 </feature>
				<threshold> 21.06826 </threshold>
				<split pos="left">
					<feature> 4 </feature>
					<threshold> 6.086386 </threshold>
					<split pos="left">
						<output> -1.020810842514038 </output>
					</split>
					<split pos="right">
						<feature> 1 </feature>
						<threshold> 10.949174 </threshold>
						<split pos="left">
							<feature> 4 </feature>
							<threshold> 19.66371 </threshold>
							<split pos="left">
								<feature> 1 </feature>
								<threshold> 7.553966 </threshold>
								<split pos="left">
									<output> 0.2927812337875366 </output>
								</split>
								<split pos="right">
									<feature> 1 </feature>
									<threshold> 7.663489 </threshold>
									<split pos="left">
										<output> 1.3051189184188843 </output>
									</split>
									<split pos="right">
										<output> 0.7105076313018799 </output>
									</split>
								</split>
							</split>
							<split pos="right">
								<output> 0.6970624923706055 </output>
							</split>
						</split>
						<split pos="right">
							<output> 0.9515600204467773 </output>
						</split>
					</split>
				</split>
				<split pos="right">
					<output> 1.1218947172164917 </output>
				</split>
			</split>
			<split pos="right">
				<feature> 4 </feature>
				<threshold> 3.9015298 </threshold>
				<split pos="left">
					<output> -1.1564205884933472 </output>
				</split>
				<split pos="right">
					<feature> 1 </feature>
					<threshold> 14.2348585 </threshold>
					<split pos="left">
						<output> 1.0511823892593384 </output>
					</split>
					<split pos="right">
						<output> 1.0382318496704102 </output>
					</split>
				</split>
			</split>
		</split>
	</tree>
	<tree id="12" weight="0.1">
		<split>
			<feature> 1 </feature>
			<threshold> 13.90629 </threshold>
			<split pos="left">
				<feature> 4 </feature>
				<threshold> 21.06826 </threshold>
				<split pos="left">
					<feature> 4 </feature>
					<threshold> 6.086386 </threshold>
					<split pos="left">
						<output> -0.9849824905395508 </output>
					</split>
					<split pos="right">
						<feature> 1 </feature>
						<threshold> 7.444443 </threshold>
						<split pos="left">
							<output> 0.15830348432064056 </output>
						</split>
						<split pos="right">
							<feature> 4 </feature>
							<threshold> 14.357629 </threshold>
							<split pos="left">
								<feature> 1 </feature>
								<threshold> 12.263448 </threshold>
								<split pos="left">
									<feature> 1 </feature>
									<threshold> 12.153925 </threshold>
									<split pos="left">
										<feature> 1 </feature>
										<threshold> 10.949174 </threshold>
										<split pos="left">
											<output> 0.7191435694694519 </output>
										</split>
										<split pos="right">
											<output> 1.1990894079208374 </output>
										</split>
									</split>
									<split pos="right">
										<output> 1.1908904314041138 </output>
									</split>
								</split>
								<split pos="right">
									<output> -0.6285741329193115 </output>
								</split>
							</split>
							<split pos="right">
								<output> 0.98479825258255 </output>
							</split>
						</split>
					</split>
				</split>
				<split pos="right">
					<output> 1.1051353216171265 </output>
				</split>
			</split>
			<split pos="right">
				<feature> 4 </feature>
				<threshold> 3.9015298 </threshold>
				<split pos="left">
					<output> -1.1307867765426636 </output>
				</split>
				<split pos="right">
					<output> 1.0185623168945312 </output>
				</split>
			</split>
		</split>
	</tree>
	<tree id="13" weight="0.1">
		<split>
			<feature> 1 </feature>
			<threshold> 13.90629 </threshold>
			<split pos="left">
				<feature> 4 </feature>
				<threshold> 21.06826 </threshold>
				<split pos="left">
					<feature> 4 </feature>
					<threshold> 6.086386 </threshold>
					<split pos="left">
						<output> -0.953625500202179 </output>
					</split>
					<split pos="right">
						<feature> 1 </feature>
						<threshold> 7.444443 </threshold>
						<split pos="left">
							<output> 0.1279195249080658 </output>
						</split>
						<split pos="right">
							<feature> 4 </feature>
							<threshold> 14.357629 </threshold>
							<split pos="left">
								<feature> 1 </feature>
								<threshold> 10.730128 </threshold>
								<split pos="left">
									<feature> 1 </feature>
									<threshold> 7.663489 </threshold>
									<split pos="left">
										<output> 1.176798939704895 </output>
									</split>
									<split pos="right">
										<output> 0.4293438494205475 </output>
									</split>
								</split>
								<split pos="right">
									<output> 0.9762347936630249 </output>
								</split>
							</split>
							<split pos="right">
								<output> 0.9302194118499756 </output>
							</split>
						</split>
					</split>
				</split>
				<split pos="right">
					<output> 1.0919620990753174 </output>
				</split>
			</split>
			<split pos="right">
				<feature> 4 </feature>
				<threshold> 3.9015298 </threshold>
				<split pos="left">
					<output> -1.107991337776184 </output>
				</split>
				<split pos="right">
					<feature> 1 </feature>
					<threshold> 14.2348585 </threshold>
					<split pos="left">
						<output> 1.0127673149108887 </output>
					</split>
					<split pos="right">
						<output> 0.9932289123535156 </output>
					</split>
				</split>
			</split>
		</split>
	</tree>
	<tree id="14" weight="0.1">
		<split>
			<feature> 4 </feature>
			<threshold> 14.9818735 </threshold>
			<split pos="left">
				<feature> 1 </feature>
				<threshold> 13.90629 </threshold>
				<split pos="left">
					<feature> 4 </feature>
					<threshold> 4.213652 </threshold>
					<split pos="left">
						<output> -1.0311400890350342 </output>
					</split>
					<split pos="right">
						<feature> 1 </feature>
						<threshold> 10.730128 </threshold>
						<split pos="left">
							<feature> 1 </feature>
							<threshold> 10.511083 </threshold>
							<split pos="left">
								<feature> 1 </feature>
								<threshold> 7.444443 </threshold>
								<split pos="left">
									<output> 0.26336175203323364 </output>
								</split>
								<split pos="right">
									<feature> 1 </feature>
									<threshold> 7.663489 </threshold>
									<split pos="left">
										<output> 1.2005871534347534 </output>
									</split>
									<split pos="right">
										<feature> 1 </feature>
										<threshold> 8.211103 </threshold>
										<split pos="left">
											<output> -2.1668331623077393 </output>
										</split>
										<split pos="right">
											<output> 0.7005963921546936 </output>
										</split>
									</split>
								</split>
							</split>
							<split pos="right">
								<output> -4.814803123474121 </output>
							</split>
						</split>
						<split pos="right">
							<output> 0.9248978495597839 </output>
						</split>
					</split>
				</split>
				<split pos="right">
					<output> 0.846703052520752 </output>
				</split>
			</split>
			<split pos="right">
				<feature> 1 </feature>
				<threshold> 13.0301075 </threshold>
				<split pos="left">
					<output> 0.9356760382652283 </output>
				</split>
				<split pos="right">
					<output> 1.0714516639709473 </output>
				</split>
			</split>
		</split>
	</tree>
	<tree id="15" weight="0.1">
		<split>
			<feature> 4 </feature>
			<threshold> 14.9818735 </threshold>
			<split pos="left">
				<feature> 1 </feature>
				<threshold> 17.63008 </threshold>
				<split pos="left">
					<feature> 4 </feature>
					<threshold> 6.086386 </threshold>
					<split pos="left">
						<output> -0.9102198481559753 </output>
					</split>
					<split pos="right">
						<feature> 1 </feature>
						<threshold> 17.520555 </threshold>
						<split pos="left">
							<feature> 1 </feature>
							<threshold> 14.015813 </threshold>
							<split pos="left">
								<feature> 1 </feature>
								<threshold> 7.2253976 </threshold>
								<split pos="left">
									<output> 0.1708710938692093 </output>
								</split>
								<split pos="right">
									<feature> 1 </feature>
									<threshold> 7.3349204 </threshold>
									<split pos="left">
										<output> 1.2065272331237793 </output>
									</split>
									<split pos="right">
										<feature> 1 </feature>
										<threshold> 10.730128 </threshold>
										<split pos="left">
											<feature> 1 </feature>
											<threshold> 8.649195 </threshold>
											<split pos="left">
												<output> 0.948342502117157 </output>
											</split>
											<split pos="right">
												<output> 0.2415468692779541 </output>
											</split>
										</split>
										<split pos="right">
											<output> 0.8569401502609253 </output>
										</split>
									</split>
								</split>
							</split>
							<split pos="right">
								<output> 0.9128305912017822 </output>
							</split>
						</split>
						<split pos="right">
							<output> -4.626372814178467 </output>
						</split>
					</split>
				</split>
				<split pos="right">
					<output> 1.0422818660736084 </output>
				</split>
			</split>
			<split pos="right">
				<output> 1.0079234838485718 </output>
			</split>
		</split>
	</tree>
	<tree id="16" weight="0.1">
		<split>
			<feature> 4 </feature>
			<threshold> 14.9818735 </threshold>
			<split pos="left">
				<feature> 1 </feature>
				<threshold> 17.63008 </threshold>
				<split pos="left">
					<feature> 4 </feature>
					<threshold> 6.3985085 </threshold>
					<split pos="left">
						<output> -0.7917820811271667 </output>
					</split>
					<split pos="right">
						<feature> 1 </feature>
						<threshold> 17.520555 </threshold>
						<split pos="left">
							<feature> 1 </feature>
							<threshold> 14.015813 </threshold>
							<split pos="left">
								<feature> 1 </feature>
								<threshold> 7.2253976 </threshold>
								<split pos="left">
									<output> 0.16968035697937012 </output>
								</split>
								<split pos="right">
									<feature> 1 </feature>
									<threshold> 7.3349204 </threshold>
									<split pos="left">
										<output> 1.179880142211914 </output>
									</split>
									<split pos="right">
										<feature> 1 </feature>
										<threshold> 7.663489 </threshold>
										<split pos="left">
											<output> 1.0929783582687378 </output>
										</split>
										<split pos="right">
											<output> 0.6966785192489624 </output>
										</split>
									</split>
								</split>
							</split>
							<split pos="right">
								<output> 0.8755033016204834 </output>
							</split>
						</split>
						<split pos="right">
							<output> -3.0148391723632812 </output>
						</split>
					</split>
				</split>
				<split pos="right">
					<output> 1.0349442958831787 </output>
				</split>
			</split>
			<split pos="right">
				<feature> 1 </feature>
				<threshold> 13.0301075 </threshold>
				<split pos="left">
					<output> 0.8664129972457886 </output>
				</split>
				<split pos="right">
					<output> 1.0613619089126587 </output>
				</split>
			</split>
		</split>
	</tree>
	<tree id="17" weight="0.1">
		<split>
			<feature> 4 </feature>
			<threshold> 14.9818735 </threshold>
			<split pos="left">
				<feature> 4 </feature>
				<threshold> 6.086386 </threshold>
				<split pos="left">
					<output> -0.850138783454895 </output>
				</split>
				<split pos="right">
					<feature> 1 </feature>
					<threshold> 18.725317 </threshold>
					<split pos="left">
						<feature> 1 </feature>
						<threshold> 7.2253976 </threshold>
						<split pos="left">
							<feature> 1 </feature>
							<threshold> 4.7063727 </threshold>
							<split pos="left">
								<output> 0.7654474377632141 </output>
							</split>
							<split pos="right">
								<output> -0.33164486289024353 </output>
							</split>
						</split>
						<split pos="right">
							<feature> 1 </feature>
							<threshold> 7.3349204 </threshold>
							<split pos="left">
								<output> 1.15498948097229 </output>
							</split>
							<split pos="right">
								<feature> 1 </feature>
								<threshold> 17.520555 </threshold>
								<split pos="left">
									<feature> 1 </feature>
									<threshold> 14.015813 </threshold>
									<split pos="left">
										<feature> 1 </feature>
										<threshold> 7.663489 </threshold>
										<split pos="left">
											<output> 1.0170152187347412 </output>
										</split>
										<split pos="right">
											<output> 0.6316795349121094 </output>
										</split>
									</split>
									<split pos="right">
										<output> 0.8554189801216125 </output>
									</split>
								</split>
								<split pos="right">
									<output> -0.7928688526153564 </output>
								</split>
							</split>
						</split>
					</split>
					<split pos="right">
						<output> 1.0537587404251099 </output>
					</split>
				</split>
			</split>
			<split pos="right">
				<output> 0.9758867025375366 </output>
			</split>
		</split>
	</tree>
	<tree id="18" weight="0.1">
		<split>
			<feature> 4 </feature>
			<threshold> 14.9818735 </threshold>
			<split pos="left">
				<feature> 4 </feature>
				<threshold> 7.803059 </threshold>
				<split pos="left">
					<feature> 1 </feature>
					<threshold> 16.75389 </threshold>
					<split pos="left">
						<feature> 4 </feature>
						<threshold> 3.121224 </threshold>
						<split pos="left">
							<output> -1.047702431678772 </output>
						</split>
						<split pos="right">
							<feature> 1 </feature>
							<threshold> 15.877701 </threshold>
							<split pos="left">
								<feature> 1 </feature>
								<threshold> 13.90629 </threshold>
								<split pos="left">
									<feature> 1 </feature>
									<threshold> 6.1301694 </threshold>
									<split pos="left">
										<output> -0.6621628403663635 </output>
									</split>
									<split pos="right">
										<output> 0.5338324308395386 </output>
									</split>
								</split>
								<split pos="right">
									<output> 1.1631144285202026 </output>
								</split>
							</split>
							<split pos="right">
								<output> -2.715944528579712 </output>
							</split>
						</split>
					</split>
					<split pos="right">
						<output> 0.9810479283332825 </output>
					</split>
				</split>
				<split pos="right">
					<feature> 1 </feature>
					<threshold> 14.015813 </threshold>
					<split pos="left">
						<feature> 1 </feature>
						<threshold> 4.7063727 </threshold>
						<split pos="left">
							<output> 0.8960863351821899 </output>
						</split>
						<split pos="right">
							<output> 0.6308501958847046 </output>
						</split>
					</split>
					<split pos="right">
						<output> 0.7887306809425354 </output>
					</split>
				</split>
			</split>
			<split pos="right">
				<output> 0.9568199515342712 </output>
			</split>
		</split>
	</tree>
	<tree id="19" weight="0.1">
		<split>
			<feature> 4 </feature>
			<threshold> 14.9818735 </threshold>
			<split pos="left">
				<feature> 1 </feature>
				<threshold> 17.63008 </threshold>
				<split pos="left">
					<feature> 1 </feature>
					<threshold> 17.520555 </threshold>
					<split pos="left">
						<feature> 4 </feature>
						<threshold> 3.5894074 </threshold>
						<split pos="left">
							<output> -0.998492956161499 </output>
						</split>
						<split pos="right">
							<feature> 1 </feature>
							<threshold> 13.90629 </threshold>
							<split pos="left">
								<feature> 1 </feature>
								<threshold> 7.2253976 </threshold>
								<split pos="left">
									<feature> 4 </feature>
									<threshold> 11.548528 </threshold>
									<split pos="left">
										<output> 0.2962684631347656 </output>
									</split>
									<split pos="right">
										<output> -3.6398279666900635 </output>
									</split>
								</split>
								<split pos="right">
									<feature> 4 </feature>
									<threshold> 6.710631 </threshold>
									<split pos="left">
										<output> 0.4547352194786072 </output>
									</split>
									<split pos="right">
										<feature> 1 </feature>
										<threshold> 7.663489 </threshold>
										<split pos="left">
											<output> 1.0511903762817383 </output>
										</split>
										<split pos="right">
											<output> 0.5919808149337769 </output>
										</split>
									</split>
								</split>
							</split>
							<split pos="right">
								<output> 0.7791141271591187 </output>
							</split>
						</split>
					</split>
					<split pos="right">
						<output> -2.62451434135437 </output>
					</split>
				</split>
				<split pos="right">
					<output> 1.0199662446975708 </output>
				</split>
			</split>
			<split pos="right">
				<output> 0.9394972324371338 </output>
			</split>
		</split>
	</tree>
	<tree id="20" weight="0.1">
		<split>
			<feature> 1 </feature>
			<threshold> 13.577722 </threshold>
			<split pos="left">
				<feature> 4 </feature>
				<threshold> 21.06826 </threshold>
				<split pos="left">
					<feature> 4 </feature>
					<threshold> 20.444016 </threshold>
					<split pos="left">
						<feature> 4 </feature>
						<threshold> 6.3985085 </threshold>
						<split pos="left">
							<output> -0.8224427700042725 </output>
						</split>
						<split pos="right">
							<feature> 1 </feature>
							<threshold> 4.7063727 </threshold>
							<split pos="left">
								<output> 0.8991765379905701 </output>
							</split>
							<split pos="right">
								<feature> 1 </feature>
								<threshold> 7.2253976 </threshold>
								<split pos="left">
									<output> -0.8954359889030457 </output>
								</split>
								<split pos="right">
									<feature> 1 </feature>
									<threshold> 7.663489 </threshold>
									<split pos="left">
										<output> 1.0376811027526855 </output>
									</split>
									<split pos="right">
										<feature> 4 </feature>
										<threshold> 19.975832 </threshold>
										<split pos="left">
											<feature> 1 </feature>
											<threshold> 8.211103 </threshold>
											<split pos="left">
												<output> -1.0482542514801025 </output>
											</split>
											<split pos="right">
												<output> 0.6391391754150391 </output>
											</split>
										</split>
										<split pos="right">
											<output> 1.1203973293304443 </output>
										</split>
									</split>
								</split>
							</split>
						</split>
					</split>
					<split pos="right">
						<output> -5.392273902893066 </output>
					</split>
				</split>
				<split pos="right">
					<output> 1.0624595880508423 </output>
				</split>
			</split>
			<split pos="right">
				<output> 0.945834755897522 </output>
			</split>
		</split>
	</tree>
	<tree id="21" weight="0.1">
		<split>
			<feature> 4 </feature>
			<threshold> 14.9818735 </threshold>
			<split pos="left">
				<feature> 1 </feature>
				<threshold> 16.75389 </threshold>
				<split pos="left">
					<feature> 4 </feature>
					<threshold> 4.213652 </threshold>
					<split pos="left">
						<output> -0.9685707092285156 </output>
					</split>
					<split pos="right">
						<feature> 1 </feature>
						<threshold> 4.59685 </threshold>
						<split pos="left">
							<feature> 4 </feature>
							<threshold> 7.9591203 </threshold>
							<split pos="left">
								<output> 0.3133484423160553 </output>
							</split>
							<split pos="right">
								<output> 0.974353015422821 </output>
							</split>
						</split>
						<split pos="right">
							<feature> 1 </feature>
							<threshold> 7.2253976 </threshold>
							<split pos="left">
								<output> -0.3818137049674988 </output>
							</split>
							<split pos="right">
								<feature> 1 </feature>
								<threshold> 7.663489 </threshold>
								<split pos="left">
									<output> 0.941728413105011 </output>
								</split>
								<split pos="right">
									<feature> 1 </feature>
									<threshold> 13.577722 </threshold>
									<split pos="left">
										<feature> 4 </feature>
										<threshold> 8.739427 </threshold>
										<split pos="left">
											<output> 0.6604969501495361 </output>
										</split>
										<split pos="right">
											<output> -0.36087924242019653 </output>
										</split>
									</split>
									<split pos="right">
										<output> 0.6725963950157166 </output>
									</split>
								</split>
							</split>
						</split>
					</split>
				</split>
				<split pos="right">
					<output> 0.9995688796043396 </output>
				</split>
			</split>
			<split pos="right">
				<output> 1.0188826322555542 </output>
			</split>
		</split>
	</tree>
	<tree id="22" weight="0.1">
		<split>
			<feature> 4 </feature>
			<threshold> 14.9818735 </threshold>
			<split pos="left">
				<feature> 4 </feature>
				<threshold> 7.803059 </threshold>
				<split pos="left">
					<feature> 4 </feature>
					<threshold> 7.646998 </threshold>
					<split pos="left">
						<feature> 4 </feature>
						<threshold> 4.3697133 </threshold>
						<split pos="left">
							<output> -0.9668144583702087 </output>
						</split>
						<split pos="right">
							<feature> 1 </feature>
							<threshold> 16.75389 </threshold>
							<split pos="left">
								<feature> 1 </feature>
								<threshold> 15.877701 </threshold>
								<split pos="left">
									<feature> 1 </feature>
									<threshold> 13.90629 </threshold>
									<split pos="left">
										<output> 0.3944215774536133 </output>
									</split>
									<split pos="right">
										<output> 1.0749591588974 </output>
									</split>
								</split>
								<split pos="right">
									<output> -2.7315123081207275 </output>
								</split>
							</split>
							<split pos="right">
								<output> 0.9627091288566589 </output>
							</split>
						</split>
					</split>
					<split pos="right">
						<output> -2.0089316368103027 </output>
					</split>
				</split>
				<split pos="right">
					<feature> 1 </feature>
					<threshold> 14.015813 </threshold>
					<split pos="left">
						<feature> 1 </feature>
						<threshold> 4.59685 </threshold>
						<split pos="left">
							<output> 0.749128520488739 </output>
						</split>
						<split pos="right">
							<output> 0.3923325836658478 </output>
						</split>
					</split>
					<split pos="right">
						<output> 1.0407170057296753 </output>
					</split>
				</split>
			</split>
			<split pos="right">
				<output> 0.9987788796424866 </output>
			</split>
		</split>
	</tree>
	<tree id="23" weight="0.1">
		<split>
			<feature> 4 </feature>
			<threshold> 14.9818735 </threshold>
			<split pos="left">
				<feature> 4 </feature>
				<threshold> 4.3697133 </threshold>
				<split pos="left">
					<output> -0.9376060366630554 </output>
				</split>
				<split pos="right">
					<feature> 1 </feature>
					<threshold> 17.63008 </threshold>
					<split pos="left">
						<feature> 1 </feature>
						<threshold> 17.520555 </threshold>
						<split pos="left">
							<feature> 1 </feature>
							<threshold> 7.2253976 </threshold>
							<split pos="left">
								<feature> 1 </feature>
								<threshold> 4.59685 </threshold>
								<split pos="left">
									<output> 0.6792037487030029 </output>
								</split>
								<split pos="right">
									<output> -0.4437329173088074 </output>
								</split>
							</split>
							<split pos="right">
								<feature> 4 </feature>
								<threshold> 6.086386 </threshold>
								<split pos="left">
									<output> 0.7719131112098694 </output>
								</split>
								<split pos="right">
									<feature> 1 </feature>
									<threshold> 7.663489 </threshold>
									<split pos="left">
										<output> 0.897793173789978 </output>
									</split>
									<split pos="right">
										<feature> 1 </feature>
										<threshold> 8.211103 </threshold>
										<split pos="left">
											<output> -1.094085931777954 </output>
										</split>
										<split pos="right">
											<output> 0.5911479592323303 </output>
										</split>
									</split>
								</split>
							</split>
						</split>
						<split pos="right">
							<output> -7.8708696365356445 </output>
						</split>
					</split>
					<split pos="right">
						<output> 1.0171599388122559 </output>
					</split>
				</split>
			</split>
			<split pos="right">
				<output> 0.9899628758430481 </output>
			</split>
		</split>
	</tree>
	<tree id="24" weight="0.1">
		<split>
			<feature> 4 </feature>
			<threshold> 14.9818735 </threshold>
			<split pos="left">
				<feature> 4 </feature>
				<threshold> 7.646998 </threshold>
				<split pos="left">
					<feature> 1 </feature>
					<threshold> 16.534842 </threshold>
					<split pos="left">
						<feature> 1 </feature>
						<threshold> 15.877701 </threshold>
						<split pos="left">
							<feature> 4 </feature>
							<threshold> 2.9651628 </threshold>
							<split pos="left">
								<output> -1.0231568813323975 </output>
							</split>
							<split pos="right">
								<feature> 1 </feature>
								<threshold> 7.2253976 </threshold>
								<split pos="left">
									<output> -0.39255276322364807 </output>
								</split>
								<split pos="right">
									<output> 0.556053638458252 </output>
								</split>
							</split>
						</split>
						<split pos="right">
							<output> -3.4877521991729736 </output>
						</split>
					</split>
					<split pos="right">
						<output> 0.9087047576904297 </output>
					</split>
				</split>
				<split pos="right">
					<feature> 1 </feature>
					<threshold> 14.015813 </threshold>
					<split pos="left">
						<feature> 1 </feature>
						<threshold> 4.59685 </threshold>
						<split pos="left">
							<output> 0.6841989159584045 </output>
						</split>
						<split pos="right">
							<feature> 1 </feature>
							<threshold> 7.553966 </threshold>
							<split pos="left">
								<output> -0.6562719941139221 </output>
							</split>
							<split pos="right">
								<output> 0.5810839533805847 </output>
							</split>
						</split>
					</split>
					<split pos="right">
						<output> 1.0295240879058838 </output>
					</split>
				</split>
			</split>
			<split pos="right">
				<output> 0.9840472340583801 </output>
			</split>
		</split>
	</tree>
	<tree id="25" weight="0.1">
		<split>
			<feature> 4 </feature>
			<threshold> 14.9818735 </threshold>
			<split pos="left">
				<feature> 4 </feature>
				<threshold> 7.646998 </threshold>
				<split pos="left">
					<feature> 1 </feature>
					<threshold> 16.534842 </threshold>
					<split pos="left">
						<feature> 1 </feature>
						<threshold> 15.877701 </threshold>
						<split pos="left">
							<feature> 1 </feature>
							<threshold> 15.768178 </threshold>
							<split pos="left">
								<feature> 4 </feature>
								<threshold> 2.9651628 </threshold>
								<split pos="left">
									<output> -1.0202932357788086 </output>
								</split>
								<split pos="right">
									<feature> 1 </feature>
									<threshold> 6.1301694 </threshold>
									<split pos="left">
										<output> -0.6940417885780334 </output>
									</split>
									<split pos="right">
										<output> 0.3984902799129486 </output>
									</split>
								</split>
							</split>
							<split pos="right">
								<output> 1.2102924585342407 </output>
							</split>
						</split>
						<split pos="right">
							<output> -2.8431904315948486 </output>
						</split>
					</split>
					<split pos="right">
						<output> 0.8887913823127747 </output>
					</split>
				</split>
				<split pos="right">
					<feature> 1 </feature>
					<threshold> 14.015813 </threshold>
					<split pos="left">
						<feature> 1 </feature>
						<threshold> 4.59685 </threshold>
						<split pos="left">
							<output> 0.6357508301734924 </output>
						</split>
						<split pos="right">
							<output> 0.3167097568511963 </output>
						</split>
					</split>
					<split pos="right">
						<output> 1.04512357711792 </output>
					</split>
				</split>
			</split>
			<split pos="right">
				<output> 0.9848074316978455 </output>
			</split>
		</split>
	</tree>
	<tree id="26" weight="0.1">
		<split>
			<feature> 1 </feature>
			<threshold> 13.577722 </threshold>
			<split pos="left">
				<feature> 4 </feature>
				<threshold> 21.06826 </threshold>
				<split pos="left">
					<feature> 4 </feature>
					<threshold> 20.444016 </threshold>
					<split pos="left">
						<feature> 4 </feature>
						<threshold> 7.646998 </threshold>
						<split pos="left">
							<feature> 4 </feature>
							<threshold> 2.9651628 </threshold>
							<split pos="left">
								<output> -1.0177973508834839 </output>
							</split>
							<split pos="right">
								<feature> 1 </feature>
								<threshold> 4.2682815 </threshold>
								<split pos="left">
									<output> 1.3078371286392212 </output>
								</split>
								<split pos="right">
									<feature> 1 </feature>
									<threshold> 6.239692 </threshold>
									<split pos="left">
										<output> -1.0573978424072266 </output>
									</split>
									<split pos="right">
										<output> 0.4134597182273865 </output>
									</split>
								</split>
							</split>
						</split>
						<split pos="right">
							<feature> 1 </feature>
							<threshold> 4.59685 </threshold>
							<split pos="left">
								<output> 0.5129398107528687 </output>
							</split>
							<split pos="right">
								<feature> 1 </feature>
								<threshold> 7.444443 </threshold>
								<split pos="left">
									<output> -0.932100772857666 </output>
								</split>
								<split pos="right">
									<output> 0.5935014486312866 </output>
								</split>
							</split>
						</split>
					</split>
					<split pos="right">
						<output> -5.255800247192383 </output>
					</split>
				</split>
				<split pos="right">
					<output> 1.0689526796340942 </output>
				</split>
			</split>
			<split pos="right">
				<output> 0.9076117277145386 </output>
			</split>
		</split>
	</tree>
	<tree id="27" weight="0.1">
		<split>
			<feature> 4 </feature>
			<threshold> 12.328834 </threshold>
			<split pos="left">
				<feature> 4 </feature>
				<threshold> 12.172772 </threshold>
				<split pos="left">
					<feature> 1 </feature>
					<threshold> 11.8253565 </threshold>
					<split pos="left">
						<feature> 1 </feature>
						<threshold> 10.839651 </threshold>
						<split pos="left">
							<feature> 4 </feature>
							<threshold> 6.3985085 </threshold>
							<split pos="left">
								<output> -0.67805016040802 </output>
							</split>
							<split pos="right">
								<feature> 1 </feature>
								<threshold> 7.2253976 </threshold>
								<split pos="left">
									<feature> 4 </feature>
									<threshold> 11.548528 </threshold>
									<split pos="left">
										<output> 0.09898772090673447 </output>
									</split>
									<split pos="right">
										<output> -3.5493381023406982 </output>
									</split>
								</split>
								<split pos="right">
									<feature> 1 </feature>
									<threshold> 7.663489 </threshold>
									<split pos="left">
										<output> 0.925729513168335 </output>
									</split>
									<split pos="right">
										<output> 0.3763974606990814 </output>
									</split>
								</split>
							</split>
						</split>
						<split pos="right">
							<feature> 4 </feature>
							<threshold> 9.051549 </threshold>
							<split pos="left">
								<output> -0.3711005449295044 </output>
							</split>
							<split pos="right">
								<output> -5.423131465911865 </output>
							</split>
						</split>
					</split>
					<split pos="right">
						<output> 0.7608689069747925 </output>
					</split>
				</split>
				<split pos="right">
					<output> -2.542587995529175 </output>
				</split>
			</split>
			<split pos="right">
				<output> 0.9593093991279602 </output>
			</split>
		</split>
	</tree>
	<tree id="28" weight="0.1">
		<split>
			<feature> 4 </feature>
			<threshold> 12.328834 </threshold>
			<split pos="left">
				<feature> 1 </feature>
				<threshold> 13.90629 </threshold>
				<split pos="left">
					<feature> 1 </feature>
					<threshold> 12.263448 </threshold>
					<split pos="left">
						<feature> 1 </feature>
						<threshold> 11.8253565 </threshold>
						<split pos="left">
							<feature> 4 </feature>
							<threshold> 11.548528 </threshold>
							<split pos="left">
								<feature> 4 </feature>
								<threshold> 6.3985085 </threshold>
								<split pos="left">
									<output> -0.6862610578536987 </output>
								</split>
								<split pos="right">
									<feature> 1 </feature>
									<threshold> 4.59685 </threshold>
									<split pos="left">
										<output> 0.4529711902141571 </output>
									</split>
									<split pos="right">
										<feature> 1 </feature>
										<threshold> 6.349215 </threshold>
										<split pos="left">
											<output> -1.6075201034545898 </output>
										</split>
										<split pos="right">
											<feature> 4 </feature>
											<threshold> 8.115182 </threshold>
											<split pos="left">
												<output> 0.7246460318565369 </output>
											</split>
											<split pos="right">
												<output> -0.14964643120765686 </output>
											</split>
										</split>
									</split>
								</split>
							</split>
							<split pos="right">
								<output> -1.7727899551391602 </output>
							</split>
						</split>
						<split pos="right">
							<output> 1.2127224206924438 </output>
						</split>
					</split>
					<split pos="right">
						<output> -1.824319839477539 </output>
					</split>
				</split>
				<split pos="right">
					<output> 0.727572500705719 </output>
				</split>
			</split>
			<split pos="right">
				<output> 0.9583555459976196 </output>
			</split>
		</split>
	</tree>
	<tree id="29" weight="0.1">
		<split>
			<feature> 1 </feature>
			<threshold> 13.0301075 </threshold>
			<split pos="left">
				<feature> 4 </feature>
				<threshold> 21.06826 </threshold>
				<split pos="left">
					<feature> 4 </feature>
					<threshold> 6.5545697 </threshold>
					<split pos="left">
						<feature> 4 </feature>
						<threshold> 6.2424474 </threshold>
						<split pos="left">
							<output> -0.6564135551452637 </output>
						</split>
						<split pos="right">
							<output> -0.9657139778137207 </output>
						</split>
					</split>
					<split pos="right">
						<feature> 1 </feature>
						<threshold> 7.2253976 </threshold>
						<split pos="left">
							<feature> 1 </feature>
							<threshold> 4.59685 </threshold>
							<split pos="left">
								<output> 0.3573819100856781 </output>
							</split>
							<split pos="right">
								<output> -0.586786150932312 </output>
							</split>
						</split>
						<split pos="right">
							<feature> 1 </feature>
							<threshold> 7.663489 </threshold>
							<split pos="left">
								<output> 0.9339551329612732 </output>
							</split>
							<split pos="right">
								<feature> 1 </feature>
								<threshold> 11.934879 </threshold>
								<split pos="left">
									<feature> 1 </feature>
									<threshold> 10.072991 </threshold>
									<split pos="left">
										<output> 0.5342368483543396 </output>
									</split>
									<split pos="right">
										<output> -0.5774774551391602 </output>
									</split>
								</split>
								<split pos="right">
									<output> 0.8533738255500793 </output>
								</split>
							</split>
						</split>
					</split>
				</split>
				<split pos="right">
					<output> 1.072812557220459 </output>
				</split>
			</split>
			<split pos="right">
				<output> 0.8520936369895935 </output>
			</split>
		</split>
	</tree>
	<tree id="30" weight="0.1">
		<split>
			<feature> 4 </feature>
			<threshold> 12.328834 </threshold>
			<split pos="left">
				<feature> 4 </feature>
				<threshold> 12.172772 </threshold>
				<split pos="left">
					<feature> 4 </feature>
					<threshold> 7.803059 </threshold>
					<split pos="left">
						<feature> 4 </feature>
						<threshold> 7.3348756 </threshold>
						<split pos="left">
							<feature> 4 </feature>
							<threshold> 6.710631 </threshold>
							<split pos="left">
								<feature> 1 </feature>
								<threshold> 15.768178 </threshold>
								<split pos="left">
									<output> -0.6220014095306396 </output>
								</split>
								<split pos="right">
									<output> 0.8021304607391357 </output>
								</split>
							</split>
							<split pos="right">
								<output> 0.5482258796691895 </output>
							</split>
						</split>
						<split pos="right">
							<feature> 1 </feature>
							<threshold> 8.977763 </threshold>
							<split pos="left">
								<output> -0.46178433299064636 </output>
							</split>
							<split pos="right">
								<output> -1.9983500242233276 </output>
							</split>
						</split>
					</split>
					<split pos="right">
						<feature> 1 </feature>
						<threshold> 11.8253565 </threshold>
						<split pos="left">
							<feature> 4 </feature>
							<threshold> 8.739427 </threshold>
							<split pos="left">
								<output> 0.8481166958808899 </output>
							</split>
							<split pos="right">
								<output> -0.15707078576087952 </output>
							</split>
						</split>
						<split pos="right">
							<output> 1.0031330585479736 </output>
						</split>
					</split>
				</split>
				<split pos="right">
					<output> -2.154634475708008 </output>
				</split>
			</split>
			<split pos="right">
				<output> 0.880959153175354 </output>
			</split>
		</split>
	</tree>
	<tree id="31" weight="0.1">
		<split>
			<feature> 4 </feature>
			<threshold> 12.328834 </threshold>
			<split pos="left">
				<feature> 4 </feature>
				<threshold> 11.548528 </threshold>
				<split pos="left">
					<feature> 4 </feature>
					<threshold> 7.646998 </threshold>
					<split pos="left">
						<feature> 4 </feature>
						<threshold> 7.3348756 </threshold>
						<split pos="left">
							<feature> 4 </feature>
							<threshold> 6.710631 </threshold>
							<split pos="left">
								<feature> 1 </feature>
								<threshold> 15.768178 </threshold>
								<split pos="left">
									<output> -0.6018195152282715 </output>
								</split>
								<split pos="right">
									<output> 0.7733860015869141 </output>
								</split>
							</split>
							<split pos="right">
								<output> 0.5253499150276184 </output>
							</split>
						</split>
						<split pos="right">
							<output> -0.7527661323547363 </output>
						</split>
					</split>
					<split pos="right">
						<feature> 1 </feature>
						<threshold> 11.8253565 </threshold>
						<split pos="left">
							<feature> 1 </feature>
							<threshold> 9.963469 </threshold>
							<split pos="left">
								<output> 0.4172545075416565 </output>
							</split>
							<split pos="right">
								<output> -2.5458824634552 </output>
							</split>
						</split>
						<split pos="right">
							<output> 1.008933186531067 </output>
						</split>
					</split>
				</split>
				<split pos="right">
					<output> -1.8433966636657715 </output>
				</split>
			</split>
			<split pos="right">
				<feature> 1 </feature>
				<threshold> 27.268171 </threshold>
				<split pos="left">
					<output> 0.9093543291091919 </output>
				</split>
				<split pos="right">
					<output> 1.1239345073699951 </output>
				</split>
			</split>
		</split>
	</tree>
	<tree id="32" weight="0.1">
		<split>
			<feature> 4 </feature>
			<threshold> 12.328834 </threshold>
			<split pos="left">
				<feature> 1 </feature>
				<threshold> 7.2253976 </threshold>
				<split pos="left">
					<feature> 4 </feature>
					<threshold> 8.271243 </threshold>
					<split pos="left">
						<feature> 4 </feature>
						<threshold> 8.115182 </threshold>
						<split pos="left">
							<feature> 4 </feature>
							<threshold> 6.086386 </threshold>
							<split pos="left">
								<output> -0.7491337656974792 </output>
							</split>
							<split pos="right">
								<output> -0.5780059099197388 </output>
							</split>
						</split>
						<split pos="right">
							<output> 1.078719139099121 </output>
						</split>
					</split>
					<split pos="right">
						<output> -0.6377788186073303 </output>
					</split>
				</split>
				<split pos="right">
					<feature> 4 </feature>
					<threshold> 6.3985085 </threshold>
					<split pos="left">
						<output> -0.3520665466785431 </output>
					</split>
					<split pos="right">
						<feature> 4 </feature>
						<threshold> 11.080344 </threshold>
						<split pos="left">
							<output> 0.6755938529968262 </output>
						</split>
						<split pos="right">
							<output> -0.9799243211746216 </output>
						</split>
					</split>
				</split>
			</split>
			<split pos="right">
				<feature> 1 </feature>
				<threshold> 6.349215 </threshold>
				<split pos="left">
					<feature> 1 </feature>
					<threshold> 6.1301694 </threshold>
					<split pos="left">
						<output> 1.1028972864151 </output>
					</split>
					<split pos="right">
						<output> 1.3489711284637451 </output>
					</split>
				</split>
				<split pos="right">
					<output> 0.8123267889022827 </output>
				</split>
			</split>
		</split>
	</tree>
	<tree id="33" weight="0.1">
		<split>
			<feature> 4 </feature>
			<threshold> 12.328834 </threshold>
			<split pos="left">
				<feature> 4 </feature>
				<threshold> 8.115182 </threshold>
				<split pos="left">
					<feature> 4 </feature>
					<threshold> 7.0227532 </threshold>
					<split pos="left">
						<feature> 4 </feature>
						<threshold> 2.9651628 </threshold>
						<split pos="left">
							<output> -1.0143051147460938 </output>
						</split>
						<split pos="right">
							<output> 0.4645375609397888 </output>
						</split>
					</split>
					<split pos="right">
						<feature> 4 </feature>
						<threshold> 7.1788144 </threshold>
						<split pos="left">
							<feature> 1 </feature>
							<threshold> 7.663489 </threshold>
							<split pos="left">
								<output> -0.32530516386032104 </output>
							</split>
							<split pos="right">
								<feature> 1 </feature>
								<threshold> 7.7730117 </threshold>
								<split pos="left">
									<output> -7.899075031280518 </output>
								</split>
								<split pos="right">
									<output> -0.13818800449371338 </output>
								</split>
							</split>
						</split>
						<split pos="right">
							<feature> 1 </feature>
							<threshold> 6.1301694 </threshold>
							<split pos="left">
								<output> -1.9584453105926514 </output>
							</split>
							<split pos="right">
								<output> -0.05836321786046028 </output>
							</split>
						</split>
					</split>
				</split>
				<split pos="right">
					<output> 0.3929302990436554 </output>
				</split>
			</split>
			<split pos="right">
				<feature> 1 </feature>
				<threshold> 5.253987 </threshold>
				<split pos="left">
					<output> 1.1665230989456177 </output>
				</split>
				<split pos="right">
					<output> 0.854661226272583 </output>
				</split>
			</split>
		</split>
	</tree>
	<tree id="34" weight="0.1">
		<split>
			<feature> 4 </feature>
			<threshold> 12.328834 </threshold>
			<split pos="left">
				<feature> 4 </feature>
				<threshold> 6.3985085 </threshold>
				<split pos="left">
					<feature> 4 </feature>
					<threshold> 6.2424474 </threshold>
					<split pos="left">
						<feature> 4 </feature>
						<threshold> 2.9651628 </threshold>
						<split pos="left">
							<output> -1.0124975442886353 </output>
						</split>
						<split pos="right">
							<output> 0.23279331624507904 </output>
						</split>
					</split>
					<split pos="right">
						<output> -2.0266048908233643 </output>
					</split>
				</split>
				<split pos="right">
					<feature> 1 </feature>
					<threshold> 7.2253976 </threshold>
					<split pos="left">
						<output> -0.15357756614685059 </output>
					</split>
					<split pos="right">
						<feature> 1 </feature>
						<threshold> 7.663489 </threshold>
						<split pos="left">
							<output> 0.881057620048523 </output>
						</split>
						<split pos="right">
							<feature> 4 </feature>
							<threshold> 10.300038 </threshold>
							<split pos="left">
								<feature> 1 </feature>
								<threshold> 9.6349 </threshold>
								<split pos="left">
									<output> 0.5893350839614868 </output>
								</split>
								<split pos="right">
									<output> -0.5303512215614319 </output>
								</split>
							</split>
							<split pos="right">
								<output> 0.867656409740448 </output>
							</split>
						</split>
					</split>
				</split>
			</split>
			<split pos="right">
				<feature> 1 </feature>
				<threshold> 5.253987 </threshold>
				<split pos="left">
					<output> 1.1237151622772217 </output>
				</split>
				<split pos="right">
					<output> 0.8233994841575623 </output>
				</split>
			</split>
		</split>
	</tree>
	<tree id="35" weight="0.1">
		<split>
			<feature> 4 </feature>
			<threshold> 12.328834 </threshold>
			<split pos="left">
				<feature> 4 </feature>
				<threshold> 7.803059 </threshold>
				<split pos="left">
					<feature> 4 </feature>
					<threshold> 7.4909368 </threshold>
					<split pos="left">
						<feature> 4 </feature>
						<threshold> 2.9651628 </threshold>
						<split pos="left">
							<output> -1.010932445526123 </output>
						</split>
						<split pos="right">
							<feature> 1 </feature>
							<threshold> 4.1587586 </threshold>
							<split pos="left">
								<output> 1.143028736114502 </output>
							</split>
							<split pos="right">
								<output> 0.04723726958036423 </output>
							</split>
						</split>
					</split>
					<split pos="right">
						<feature> 1 </feature>
						<threshold> 8.977763 </threshold>
						<split pos="left">
							<output> -0.42916449904441833 </output>
						</split>
						<split pos="right">
							<output> -2.5659234523773193 </output>
						</split>
					</split>
				</split>
				<split pos="right">
					<feature> 1 </feature>
					<threshold> 9.525377 </threshold>
					<split pos="left">
						<output> -0.050922174006700516 </output>
					</split>
					<split pos="right">
						<output> 0.9218378663063049 </output>
					</split>
				</split>
			</split>
			<split pos="right">
				<feature> 1 </feature>
				<threshold> 27.268171 </threshold>
				<split pos="left">
					<feature> 1 </feature>
					<threshold> 5.253987 </threshold>
					<split pos="left">
						<output> 1.1201976537704468 </output>
					</split>
					<split pos="right">
						<output> 0.7755842208862305 </output>
					</split>
				</split>
				<split pos="right">
					<output> 1.1229020357131958 </output>
				</split>
			</split>
		</split>
	</tree>
	<tree id="36" weight="0.1">
		<split>
			<feature> 4 </feature>
			<threshold> 12.328834 </threshold>
			<split pos="left">
				<feature> 1 </feature>
				<threshold> 13.90629 </threshold>
				<split pos="left">
					<feature> 4 </feature>
					<threshold> 8.583365 </threshold>
					<split pos="left">
						<feature> 4 </feature>
						<threshold> 8.115182 </threshold>
						<split pos="left">
							<feature> 4 </feature>
							<threshold> 7.646998 </threshold>
							<split pos="left">
								<feature> 4 </feature>
								<threshold> 7.4909368 </threshold>
								<split pos="left">
									<feature> 4 </feature>
									<threshold> 2.9651628 </threshold>
									<split pos="left">
										<output> -1.0098294019699097 </output>
									</split>
									<split pos="right">
										<feature> 1 </feature>
										<threshold> 4.1587586 </threshold>
										<split pos="left">
											<output> 0.8632658123970032 </output>
										</split>
										<split pos="right">
											<output> 0.0426652655005455 </output>
										</split>
									</split>
								</split>
								<split pos="right">
									<output> -0.605758011341095 </output>
								</split>
							</split>
							<split pos="right">
								<output> 0.7784042358398438 </output>
							</split>
						</split>
						<split pos="right">
							<feature> 1 </feature>
							<threshold> 10.072991 </threshold>
							<split pos="left">
								<output> -0.217510387301445 </output>
							</split>
							<split pos="right">
								<output> -6.03888463973999 </output>
							</split>
						</split>
					</split>
					<split pos="right">
						<output> 0.2629610300064087 </output>
					</split>
				</split>
				<split pos="right">
					<output> 0.6660473346710205 </output>
				</split>
			</split>
			<split pos="right">
				<output> 0.8122326731681824 </output>
			</split>
		</split>
	</tree>
	<tree id="37" weight="0.1">
		<split>
			<feature> 4 </feature>
			<threshold> 12.328834 </threshold>
			<split pos="left">
				<feature> 4 </feature>
				<threshold> 11.080344 </threshold>
				<split pos="left">
					<feature> 4 </feature>
					<threshold> 7.4909368 </threshold>
					<split pos="left">
						<feature> 4 </feature>
						<threshold> 6.2424474 </threshold>
						<split pos="left">
							<feature> 4 </feature>
							<threshold> 2.9651628 </threshold>
							<split pos="left">
								<output> -1.0090749263763428 </output>
							</split>
							<split pos="right">
								<output> 0.21781449019908905 </output>
							</split>
						</split>
						<split pos="right">
							<feature> 1 </feature>
							<threshold> 5.3635097 </threshold>
							<split pos="left">
								<feature> 4 </feature>
								<threshold> 6.3985085 </threshold>
								<split pos="left">
									<output> -4.444976806640625 </output>
								</split>
								<split pos="right">
									<output> -1.0656859874725342 </output>
								</split>
							</split>
							<split pos="right">
								<output> 0.08404755592346191 </output>
							</split>
						</split>
					</split>
					<split pos="right">
						<feature> 1 </feature>
						<threshold> 9.525377 </threshold>
						<split pos="left">
							<output> 0.33725234866142273 </output>
						</split>
						<split pos="right">
							<output> 0.9973500967025757 </output>
						</split>
					</split>
				</split>
				<split pos="right">
					<feature> 4 </feature>
					<threshold> 11.236405 </threshold>
					<split pos="left">
						<output> -3.4779484272003174 </output>
					</split>
					<split pos="right">
						<output> 0.08488702028989792 </output>
					</split>
				</split>
			</split>
			<split pos="right">
				<output> 0.7973794341087341 </output>
			</split>
		</split>
	</tree>
	<tree id="38" weight="0.1">
		<split>
			<feature> 4 </feature>
			<threshold> 12.328834 </threshold>
			<split pos="left">
				<feature> 1 </feature>
				<threshold> 17.63008 </threshold>
				<split pos="left">
					<feature> 4 </feature>
					<threshold> 7.803059 </threshold>
					<split pos="left">
						<feature> 4 </feature>
						<threshold> 7.646998 </threshold>
						<split pos="left">
							<feature> 4 </feature>
							<threshold> 7.3348756 </threshold>
							<split pos="left">
								<feature> 4 </feature>
								<threshold> 4.057591 </threshold>
								<split pos="left">
									<output> -0.8447160124778748 </output>
								</split>
								<split pos="right">
									<feature> 1 </feature>
									<threshold> 4.1587586 </threshold>
									<split pos="left">
										<output> 1.1870698928833008 </output>
									</split>
									<split pos="right">
										<output> 0.12103857100009918 </output>
									</split>
								</split>
							</split>
							<split pos="right">
								<output> -0.8084719181060791 </output>
							</split>
						</split>
						<split pos="right">
							<feature> 1 </feature>
							<threshold> 8.86824 </threshold>
							<split pos="left">
								<output> 3.6073734760284424 </output>
							</split>
							<split pos="right">
								<output> -2.83565616607666 </output>
							</split>
						</split>
					</split>
					<split pos="right">
						<feature> 1 </feature>
						<threshold> 7.553966 </threshold>
						<split pos="left">
							<output> -0.3111252188682556 </output>
						</split>
						<split pos="right">
							<output> 0.6972612738609314 </output>
						</split>
					</split>
				</split>
				<split pos="right">
					<output> 0.9342369437217712 </output>
				</split>
			</split>
			<split pos="right">
				<output> 0.7735135555267334 </output>
			</split>
		</split>
	</tree>
	<tree id="39" weight="0.1">
		<split>
			<feature> 1 </feature>
			<threshold> 3.7206674 </threshold>
			<split pos="left">
				<feature> 4 </feature>
				<threshold> 4.213652 </threshold>
				<split pos="left">
					<output> -1.0881032943725586 </output>
				</split>
				<split pos="right">
					<feature> 4 </feature>
					<threshold> 4.3697133 </threshold>
					<split pos="left">
						<feature> 1 </feature>
						<threshold> 3.6111445 </threshold>
						<split pos="left">
							<output> -1.0082252025604248 </output>
						</split>
						<split pos="right">
							<output> 1.2144684791564941 </output>
						</split>
					</split>
					<split pos="right">
						<output> -1.058954119682312 </output>
					</split>
				</split>
			</split>
			<split pos="right">
				<feature> 4 </feature>
				<threshold> 12.328834 </threshold>
				<split pos="left">
					<feature> 1 </feature>
					<threshold> 7.2253976 </threshold>
					<split pos="left">
						<feature> 4 </feature>
						<threshold> 6.086386 </threshold>
						<split pos="left">
							<output> -0.8470538854598999 </output>
						</split>
						<split pos="right">
							<feature> 1 </feature>
							<threshold> 4.59685 </threshold>
							<split pos="left">
								<output> 0.2790730595588684 </output>
							</split>
							<split pos="right">
								<feature> 1 </feature>
								<threshold> 6.1301694 </threshold>
								<split pos="left">
									<output> -2.3580362796783447 </output>
								</split>
								<split pos="right">
									<output> -0.10531363636255264 </output>
								</split>
							</split>
						</split>
					</split>
					<split pos="right">
						<output> 0.17686864733695984 </output>
					</split>
				</split>
				<split pos="right">
					<output> 0.7448771595954895 </output>
				</split>
			</split>
		</split>
	</tree>
	<tree id="40" weight="0.1">
		<split>
			<feature> 1 </feature>
			<threshold> 3.7206674 </threshold>
			<split pos="left">
				<feature> 4 </feature>
				<threshold> 4.213652 </threshold>
				<split pos="left">
					<output> -1.0699352025985718 </output>
				</split>
				<split pos="right">
					<feature> 4 </feature>
					<threshold> 4.3697133 </threshold>
					<split pos="left">
						<feature> 1 </feature>
						<threshold> 3.6111445 </threshold>
						<split pos="left">
							<output> -1.0069025754928589 </output>
						</split>
						<split pos="right">
							<output> 1.185940146446228 </output>
						</split>
					</split>
					<split pos="right">
						<output> -1.0502891540527344 </output>
					</split>
				</split>
			</split>
			<split pos="right">
				<feature> 4 </feature>
				<threshold> 10.768222 </threshold>
				<split pos="left">
					<feature> 1 </feature>
					<threshold> 18.396746 </threshold>
					<split pos="left">
						<feature> 1 </feature>
						<threshold> 4.049236 </threshold>
						<split pos="left">
							<output> -0.9241123199462891 </output>
						</split>
						<split pos="right">
							<feature> 1 </feature>
							<threshold> 4.1587586 </threshold>
							<split pos="left">
								<output> 1.0019536018371582 </output>
							</split>
							<split pos="right">
								<feature> 1 </feature>
								<threshold> 6.239692 </threshold>
								<split pos="left">
									<output> -1.1443547010421753 </output>
								</split>
								<split pos="right">
									<output> -0.07907620072364807 </output>
								</split>
							</split>
						</split>
					</split>
					<split pos="right">
						<output> 0.9413310289382935 </output>
					</split>
				</split>
				<split pos="right">
					<output> 0.6710038185119629 </output>
				</split>
			</split>
		</split>
	</tree>
	<tree id="41" weight="0.1">
		<split>
			<feature> 1 </feature>
			<threshold> 3.7206674 </threshold>
			<split pos="left">
				<feature> 4 </feature>
				<threshold> 4.213652 </threshold>
				<split pos="left">
					<output> -1.0557045936584473 </output>
				</split>
				<split pos="right">
					<feature> 4 </feature>
					<threshold> 4.3697133 </threshold>
					<split pos="left">
						<feature> 1 </feature>
						<threshold> 3.6111445 </threshold>
						<split pos="left">
							<output> -1.0058363676071167 </output>
						</split>
						<split pos="right">
							<output> 1.1623344421386719 </output>
						</split>
					</split>
					<split pos="right">
						<output> -1.0420420169830322 </output>
					</split>
				</split>
			</split>
			<split pos="right">
				<feature> 1 </feature>
				<threshold> 27.268171 </threshold>
				<split pos="left">
					<feature> 1 </feature>
					<threshold> 11.8253565 </threshold>
					<split pos="left">
						<feature> 4 </feature>
						<threshold> 15.606118 </threshold>
						<split pos="left">
							<feature> 4 </feature>
							<threshold> 15.450057 </threshold>
							<split pos="left">
								<feature> 4 </feature>
								<threshold> 12.953078 </threshold>
								<split pos="left">
									<output> -0.2925206124782562 </output>
								</split>
								<split pos="right">
									<output> 0.8606578707695007 </output>
								</split>
							</split>
							<split pos="right">
								<output> 1.2187696695327759 </output>
							</split>
						</split>
						<split pos="right">
							<output> -1.983795166015625 </output>
						</split>
					</split>
					<split pos="right">
						<output> 0.5696657299995422 </output>
					</split>
				</split>
				<split pos="right">
					<output> 1.1262102127075195 </output>
				</split>
			</split>
		</split>
	</tree>
	<tree id="42" weight="0.1">
		<split>
			<feature> 1 </feature>
			<threshold> 3.7206674 </threshold>
			<split pos="left">
				<feature> 4 </feature>
				<threshold> 4.213652 </threshold>
				<split pos="left">
					<output> -1.0432926416397095 </output>
				</split>
				<split pos="right">
					<feature> 4 </feature>
					<threshold> 4.3697133 </threshold>
					<split pos="left">
						<feature> 1 </feature>
						<threshold> 3.6111445 </threshold>
						<split pos="left">
							<output> -1.0049856901168823 </output>
						</split>
						<split pos="right">
							<output> 1.1438469886779785 </output>
						</split>
					</split>
					<split pos="right">
						<output> -1.0431554317474365 </output>
					</split>
				</split>
			</split>
			<split pos="right">
				<feature> 4 </feature>
				<threshold> 12.328834 </threshold>
				<split pos="left">
					<feature> 4 </feature>
					<threshold> 11.080344 </threshold>
					<split pos="left">
						<feature> 4 </feature>
						<threshold> 7.646998 </threshold>
						<split pos="left">
							<feature> 4 </feature>
							<threshold> 7.3348756 </threshold>
							<split pos="left">
								<output> -0.5028236508369446 </output>
							</split>
							<split pos="right">
								<output> -0.7751821875572205 </output>
							</split>
						</split>
						<split pos="right">
							<output> 0.5776703953742981 </output>
						</split>
					</split>
					<split pos="right">
						<feature> 4 </feature>
						<threshold> 11.236405 </threshold>
						<split pos="left">
							<output> -3.8004391193389893 </output>
						</split>
						<split pos="right">
							<output> 0.011477132327854633 </output>
						</split>
					</split>
				</split>
				<split pos="right">
					<output> 0.6607615947723389 </output>
				</split>
			</split>
		</split>
	</tree>
	<tree id="43" weight="0.1">
		<split>
			<feature> 4 </feature>
			<threshold> 10.768222 </threshold>
			<split pos="left">
				<feature> 1 </feature>
				<threshold> 3.7206674 </threshold>
				<split pos="left">
					<feature> 4 </feature>
					<threshold> 4.213652 </threshold>
					<split pos="left">
						<output> -1.0345090627670288 </output>
					</split>
					<split pos="right">
						<feature> 4 </feature>
						<threshold> 4.3697133 </threshold>
						<split pos="left">
							<feature> 1 </feature>
							<threshold> 3.6111445 </threshold>
							<split pos="left">
								<output> -1.004220724105835 </output>
							</split>
							<split pos="right">
								<output> 1.1253340244293213 </output>
							</split>
						</split>
						<split pos="right">
							<output> -1.0365097522735596 </output>
						</split>
					</split>
				</split>
				<split pos="right">
					<feature> 4 </feature>
					<threshold> 7.803059 </threshold>
					<split pos="left">
						<feature> 4 </feature>
						<threshold> 7.3348756 </threshold>
						<split pos="left">
							<feature> 1 </feature>
							<threshold> 4.2682815 </threshold>
							<split pos="left">
								<output> -0.7779574394226074 </output>
							</split>
							<split pos="right">
								<output> -0.5298338532447815 </output>
							</split>
						</split>
						<split pos="right">
							<feature> 1 </feature>
							<threshold> 6.1301694 </threshold>
							<split pos="left">
								<output> -3.317687749862671 </output>
							</split>
							<split pos="right">
								<output> 0.26712876558303833 </output>
							</split>
						</split>
					</split>
					<split pos="right">
						<output> 0.2704165279865265 </output>
					</split>
				</split>
			</split>
			<split pos="right">
				<output> 0.6770048141479492 </output>
			</split>
		</split>
	</tree>
	<tree id="44" weight="0.1">
		<split>
			<feature> 4 </feature>
			<threshold> 10.768222 </threshold>
			<split pos="left">
				<feature> 1 </feature>
				<threshold> 3.7206674 </threshold>
				<split pos="left">
					<feature> 4 </feature>
					<threshold> 4.213652 </threshold>
					<split pos="left">
						<output> -1.0275238752365112 </output>
					</split>
					<split pos="right">
						<feature> 4 </feature>
						<threshold> 4.3697133 </threshold>
						<split pos="left">
							<feature> 1 </feature>
							<threshold> 3.6111445 </threshold>
							<split pos="left">
								<output> -1.0035674571990967 </output>
							</split>
							<split pos="right">
								<output> 1.1088372468948364 </output>
							</split>
						</split>
						<split pos="right">
							<output> -1.0311540365219116 </output>
						</split>
					</split>
				</split>
				<split pos="right">
					<feature> 1 </feature>
					<threshold> 18.396746 </threshold>
					<split pos="left">
						<feature> 1 </feature>
						<threshold> 4.049236 </threshold>
						<split pos="left">
							<output> -0.8471121788024902 </output>
						</split>
						<split pos="right">
							<feature> 1 </feature>
							<threshold> 4.1587586 </threshold>
							<split pos="left">
								<output> 1.2932924032211304 </output>
							</split>
							<split pos="right">
								<feature> 4 </feature>
								<threshold> 6.3985085 </threshold>
								<split pos="left">
									<output> -0.8603301644325256 </output>
								</split>
								<split pos="right">
									<output> 0.06460815668106079 </output>
								</split>
							</split>
						</split>
					</split>
					<split pos="right">
						<output> 0.8935077786445618 </output>
					</split>
				</split>
			</split>
			<split pos="right">
				<output> 0.6439604759216309 </output>
			</split>
		</split>
	</tree>
	<tree id="45" weight="0.1">
		<split>
			<feature> 4 </feature>
			<threshold> 7.4909368 </threshold>
			<split pos="left">
				<feature> 1 </feature>
				<threshold> 3.7206674 </threshold>
				<split pos="left">
					<feature> 4 </feature>
					<threshold> 4.213652 </threshold>
					<split pos="left">
						<output> -1.022017002105713 </output>
					</split>
					<split pos="right">
						<feature> 4 </feature>
						<threshold> 4.3697133 </threshold>
						<split pos="left">
							<feature> 1 </feature>
							<threshold> 3.6111445 </threshold>
							<split pos="left">
								<output> -1.0030256509780884 </output>
							</split>
							<split pos="right">
								<output> 1.0923712253570557 </output>
							</split>
						</split>
						<split pos="right">
							<output> -1.020127296447754 </output>
						</split>
					</split>
				</split>
				<split pos="right">
					<feature> 4 </feature>
					<threshold> 4.5257745 </threshold>
					<split pos="left">
						<output> -0.5771597027778625 </output>
					</split>
					<split pos="right">
						<feature> 1 </feature>
						<threshold> 4.1587586 </threshold>
						<split pos="left">
							<output> -2.9727983474731445 </output>
						</split>
						<split pos="right">
							<output> -0.5259582996368408 </output>
						</split>
					</split>
				</split>
			</split>
			<split pos="right">
				<feature> 1 </feature>
				<threshold> 27.268171 </threshold>
				<split pos="left">
					<feature> 1 </feature>
					<threshold> 11.8253565 </threshold>
					<split pos="left">
						<output> 0.33344095945358276 </output>
					</split>
					<split pos="right">
						<output> 0.7526203393936157 </output>
					</split>
				</split>
				<split pos="right">
					<output> 1.0991489887237549 </output>
				</split>
			</split>
		</split>
	</tree>
	<tree id="46" weight="0.1">
		<split>
			<feature> 4 </feature>
			<threshold> 10.768222 </threshold>
			<split pos="left">
				<feature> 1 </feature>
				<threshold> 3.7206674 </threshold>
				<split pos="left">
					<feature> 4 </feature>
					<threshold> 4.213652 </threshold>
					<split pos="left">
						<output> -1.017541527748108 </output>
					</split>
					<split pos="right">
						<feature> 4 </feature>
						<threshold> 4.3697133 </threshold>
						<split pos="left">
							<output> 1.0792731046676636 </output>
						</split>
						<split pos="right">
							<output> -1.0250647068023682 </output>
						</split>
					</split>
				</split>
				<split pos="right">
					<feature> 1 </feature>
					<threshold> 17.63008 </threshold>
					<split pos="left">
						<feature> 1 </feature>
						<threshold> 4.1587586 </threshold>
						<split pos="left">
							<output> 0.27372029423713684 </output>
						</split>
						<split pos="right">
							<feature> 4 </feature>
							<threshold> 8.427304 </threshold>
							<split pos="left">
								<feature> 4 </feature>
								<threshold> 7.4909368 </threshold>
								<split pos="left">
									<feature> 4 </feature>
									<threshold> 7.0227532 </threshold>
									<split pos="left">
										<output> -0.586792528629303 </output>
									</split>
									<split pos="right">
										<output> -1.0720875263214111 </output>
									</split>
								</split>
								<split pos="right">
									<output> 0.45047450065612793 </output>
								</split>
							</split>
							<split pos="right">
								<output> -0.31603267788887024 </output>
							</split>
						</split>
					</split>
					<split pos="right">
						<output> 0.8771622180938721 </output>
					</split>
				</split>
			</split>
			<split pos="right">
				<output> 0.6108376979827881 </output>
			</split>
		</split>
	</tree>
	<tree id="47" weight="0.1">
		<split>
			<feature> 1 </feature>
			<threshold> 27.268171 </threshold>
			<split pos="left">
				<feature> 4 </feature>
				<threshold> 15.606118 </threshold>
				<split pos="left">
					<feature> 4 </feature>
					<threshold> 15.450057 </threshold>
					<split pos="left">
						<feature> 4 </feature>
						<threshold> 4.057591 </threshold>
						<split pos="left">
							<output> -0.8815264701843262 </output>
						</split>
						<split pos="right">
							<feature> 1 </feature>
							<threshold> 3.7206674 </threshold>
							<split pos="left">
								<output> 0.9886448979377747 </output>
							</split>
							<split pos="right">
								<feature> 1 </feature>
								<threshold> 4.1587586 </threshold>
								<split pos="left">
									<output> 0.8558494448661804 </output>
								</split>
								<split pos="right">
									<feature> 1 </feature>
									<threshold> 6.239692 </threshold>
									<split pos="left">
										<output> -0.7553037405014038 </output>
									</split>
									<split pos="right">
										<output> 0.4888763725757599 </output>
									</split>
								</split>
							</split>
						</split>
					</split>
					<split pos="right">
						<output> 1.1966115236282349 </output>
					</split>
				</split>
				<split pos="right">
					<feature> 4 </feature>
					<threshold> 15.762179 </threshold>
					<split pos="left">
						<feature> 1 </feature>
						<threshold> 6.239692 </threshold>
						<split pos="left">
							<output> 0.0 </output>
						</split>
						<split pos="right">
							<output> -9.563579559326172 </output>
						</split>
					</split>
					<split pos="right">
						<output> 0.6390029191970825 </output>
					</split>
				</split>
			</split>
			<split pos="right">
				<output> 1.095545768737793 </output>
			</split>
		</split>
	</tree>
	<tree id="48" weight="0.1">
		<split>
			<feature> 1 </feature>
			<threshold> 27.268171 </threshold>
			<split pos="left">
				<feature> 4 </feature>
				<threshold> 10.768222 </threshold>
				<split pos="left">
					<feature> 1 </feature>
					<threshold> 3.7206674 </threshold>
					<split pos="left">
						<feature> 4 </feature>
						<threshold> 4.213652 </threshold>
						<split pos="left">
							<output> -1.011712670326233 </output>
						</split>
						<split pos="right">
							<output> 0.9823729991912842 </output>
						</split>
					</split>
					<split pos="right">
						<feature> 1 </feature>
						<threshold> 18.396746 </threshold>
						<split pos="left">
							<feature> 1 </feature>
							<threshold> 4.1587586 </threshold>
							<split pos="left">
								<output> 0.3287055492401123 </output>
							</split>
							<split pos="right">
								<feature> 4 </feature>
								<threshold> 4.5257745 </threshold>
								<split pos="left">
									<output> -0.5716577768325806 </output>
								</split>
								<split pos="right">
									<feature> 4 </feature>
									<threshold> 4.6818357 </threshold>
									<split pos="left">
										<output> -3.7219741344451904 </output>
									</split>
									<split pos="right">
										<feature> 1 </feature>
										<threshold> 7.2253976 </threshold>
										<split pos="left">
											<output> -0.8362563848495483 </output>
										</split>
										<split pos="right">
											<output> 0.267312616109848 </output>
										</split>
									</split>
								</split>
							</split>
						</split>
						<split pos="right">
							<output> 0.8546822667121887 </output>
						</split>
					</split>
				</split>
				<split pos="right">
					<output> 0.5217308402061462 </output>
				</split>
			</split>
			<split pos="right">
				<output> 1.0922425985336304 </output>
			</split>
		</split>
	</tree>
	<tree id="49" weight="0.1">
		<split>
			<feature> 1 </feature>
			<threshold> 27.268171 </threshold>
			<split pos="left">
				<feature> 4 </feature>
				<threshold> 10.768222 </threshold>
				<split pos="left">
					<feature> 1 </feature>
					<threshold> 3.7206674 </threshold>
					<split pos="left">
						<output> 0.7841479778289795 </output>
					</split>
					<split pos="right">
						<feature> 4 </feature>
						<threshold> 7.803059 </threshold>
						<split pos="left">
							<feature> 4 </feature>
							<threshold> 7.4909368 </threshold>
							<split pos="left">
								<feature> 4 </feature>
								<threshold> 7.0227532 </threshold>
								<split pos="left">
									<feature> 4 </feature>
									<threshold> 6.5545697 </threshold>
									<split pos="left">
										<feature> 4 </feature>
										<threshold> 6.2424474 </threshold>
										<split pos="left">
											<output> -0.38623175024986267 </output>
										</split>
										<split pos="right">
											<output> -1.38868248462677 </output>
										</split>
									</split>
									<split pos="right">
										<output> 0.5768617987632751 </output>
									</split>
								</split>
								<split pos="right">
									<output> -1.2531518936157227 </output>
								</split>
							</split>
							<split pos="right">
								<feature> 1 </feature>
								<threshold> 6.349215 </threshold>
								<split pos="left">
									<output> -3.5767428874969482 </output>
								</split>
								<split pos="right">
									<output> 0.5335943102836609 </output>
								</split>
							</split>
						</split>
						<split pos="right">
							<output> 0.22960510849952698 </output>
						</split>
					</split>
				</split>
				<split pos="right">
					<output> 0.5154131650924683 </output>
				</split>
			</split>
			<split pos="right">
				<output> 1.0888402462005615 </output>
			</split>
		</split>
	</tree>
	<tree id="50" weight="0.1">
		<split>
			<feature> 1 </feature>
			<threshold> 27.268171 </threshold>
			<split pos="left">
				<feature> 4 </feature>
				<threshold> 10.768222 </threshold>
				<split pos="left">
					<feature> 1 </feature>
					<threshold> 4.1587586 </threshold>
					<split pos="left">
						<feature> 4 </feature>
						<threshold> 4.213652 </threshold>
						<split pos="left">
							<output> -1.0175150632858276 </output>
						</split>
						<split pos="right">
							<feature> 4 </feature>
							<threshold> 4.5257745 </threshold>
							<split pos="left">
								<output> 1.4724111557006836 </output>
							</split>
							<split pos="right">
								<output> 0.027933770790696144 </output>
							</split>
						</split>
					</split>
					<split pos="right">
						<feature> 1 </feature>
						<threshold> 18.396746 </threshold>
						<split pos="left">
							<feature> 4 </feature>
							<threshold> 4.5257745 </threshold>
							<split pos="left">
								<output> -0.47220921516418457 </output>
							</split>
							<split pos="right">
								<feature> 4 </feature>
								<threshold> 4.6818357 </threshold>
								<split pos="left">
									<feature> 1 </feature>
									<threshold> 7.553966 </threshold>
									<split pos="left">
										<output> -1.0162357091903687 </output>
									</split>
									<split pos="right">
										<output> -3.3926401138305664 </output>
									</split>
								</split>
								<split pos="right">
									<output> -0.10501822084188461 </output>
								</split>
							</split>
						</split>
						<split pos="right">
							<output> 0.8536977171897888 </output>
						</split>
					</split>
				</split>
				<split pos="right">
					<output> 0.4943971633911133 </output>
				</split>
			</split>
			<split pos="right">
				<output> 1.0852006673812866 </output>
			</split>
		</split>
	</tree>
	<tree id="51" weight="0.1">
		<split>
			<feature> 4 </feature>
			<threshold> 4.213652 </threshold>
			<split pos="left">
				<output> -1.0779519081115723 </output>
			</split>
			<split pos="right">
				<feature> 4 </feature>
				<threshold> 4.5257745 </threshold>
				<split pos="left">
					<feature> 1 </feature>
					<threshold> 4.1587586 </threshold>
					<split pos="left">
						<output> 1.480679988861084 </output>
					</split>
					<split pos="right">
						<feature> 1 </feature>
						<threshold> 8.101581 </threshold>
						<split pos="left">
							<output> -1.0248150825500488 </output>
						</split>
						<split pos="right">
							<feature> 1 </feature>
							<threshold> 8.211103 </threshold>
							<split pos="left">
								<output> 1.3061554431915283 </output>
							</split>
							<split pos="right">
								<output> -1.9345201253890991 </output>
							</split>
						</split>
					</split>
				</split>
				<split pos="right">
					<feature> 1 </feature>
					<threshold> 27.268171 </threshold>
					<split pos="left">
						<feature> 1 </feature>
						<threshold> 7.2253976 </threshold>
						<split pos="left">
							<output> -0.41845202445983887 </output>
						</split>
						<split pos="right">
							<feature> 1 </feature>
							<threshold> 7.663489 </threshold>
							<split pos="left">
								<output> 0.6753056645393372 </output>
							</split>
							<split pos="right">
								<feature> 4 </feature>
								<threshold> 7.803059 </threshold>
								<split pos="left">
									<output> -0.3892189860343933 </output>
								</split>
								<split pos="right">
									<output> 0.4406815469264984 </output>
								</split>
							</split>
						</split>
					</split>
					<split pos="right">
						<output> 1.0815006494522095 </output>
					</split>
				</split>
			</split>
		</split>
	</tree>
	<tree id="52" weight="0.1">
		<split>
			<feature> 4 </feature>
			<threshold> 4.213652 </threshold>
			<split pos="left">
				<output> -1.0614479780197144 </output>
			</split>
			<split pos="right">
				<feature> 4 </feature>
				<threshold> 4.5257745 </threshold>
				<split pos="left">
					<feature> 1 </feature>
					<threshold> 4.1587586 </threshold>
					<split pos="left">
						<output> 1.4720414876937866 </output>
					</split>
					<split pos="right">
						<feature> 1 </feature>
						<threshold> 8.101581 </threshold>
						<split pos="left">
							<output> -1.0238046646118164 </output>
						</split>
						<split pos="right">
							<feature> 1 </feature>
							<threshold> 8.211103 </threshold>
							<split pos="left">
								<output> 1.2630599737167358 </output>
							</split>
							<split pos="right">
								<output> -1.6856555938720703 </output>
							</split>
						</split>
					</split>
				</split>
				<split pos="right">
					<feature> 1 </feature>
					<threshold> 27.268171 </threshold>
					<split pos="left">
						<feature> 4 </feature>
						<threshold> 8.583365 </threshold>
						<split pos="left">
							<output> -0.2883084714412689 </output>
						</split>
						<split pos="right">
							<feature> 1 </feature>
							<threshold> 7.553966 </threshold>
							<split pos="left">
								<output> -0.08026319742202759 </output>
							</split>
							<split pos="right">
								<feature> 1 </feature>
								<threshold> 7.663489 </threshold>
								<split pos="left">
									<output> 1.2101694345474243 </output>
								</split>
								<split pos="right">
									<output> 0.4235367774963379 </output>
								</split>
							</split>
						</split>
					</split>
					<split pos="right">
						<output> 1.0780147314071655 </output>
					</split>
				</split>
			</split>
		</split>
	</tree>
	<tree id="53" weight="0.1">
		<split>
			<feature> 4 </feature>
			<threshold> 4.213652 </threshold>
			<split pos="left">
				<output> -1.0486279726028442 </output>
			</split>
			<split pos="right">
				<feature> 4 </feature>
				<threshold> 4.5257745 </threshold>
				<split pos="left">
					<feature> 1 </feature>
					<threshold> 4.1587586 </threshold>
					<split pos="left">
						<output> 1.4533886909484863 </output>
					</split>
					<split pos="right">
						<feature> 1 </feature>
						<threshold> 8.101581 </threshold>
						<split pos="left">
							<output> -1.022692084312439 </output>
						</split>
						<split pos="right">
							<feature> 1 </feature>
							<threshold> 8.211103 </threshold>
							<split pos="left">
								<output> 1.2265825271606445 </output>
							</split>
							<split pos="right">
								<output> -1.5117340087890625 </output>
							</split>
						</split>
					</split>
				</split>
				<split pos="right">
					<feature> 1 </feature>
					<threshold> 27.268171 </threshold>
					<split pos="left">
						<feature> 4 </feature>
						<threshold> 10.768222 </threshold>
						<split pos="left">
							<feature> 1 </feature>
							<threshold> 7.2253976 </threshold>
							<split pos="left">
								<output> -0.6291950941085815 </output>
							</split>
							<split pos="right">
								<output> 0.19163309037685394 </output>
							</split>
						</split>
						<split pos="right">
							<feature> 4 </feature>
							<threshold> 10.924283 </threshold>
							<split pos="left">
								<output> 4.0584330558776855 </output>
							</split>
							<split pos="right">
								<output> 0.2798924148082733 </output>
							</split>
						</split>
					</split>
					<split pos="right">
						<output> 1.0738985538482666 </output>
					</split>
				</split>
			</split>
		</split>
	</tree>
	<tree id="54" weight="0.1">
		<split>
			<feature> 1 </feature>
			<threshold> 27.268171 </threshold>
			<split pos="left">
				<feature> 4 </feature>
				<threshold> 4.213652 </threshold>
				<split pos="left">
					<output> -1.0386285781860352 </output>
				</split>
				<split pos="right">
					<feature> 4 </feature>
					<threshold> 4.5257745 </threshold>
					<split pos="left">
						<feature> 1 </feature>
						<threshold> 4.1587586 </threshold>
						<split pos="left">
							<output> 1.411644458770752 </output>
						</split>
						<split pos="right">
							<feature> 1 </feature>
							<threshold> 8.101581 </threshold>
							<split pos="left">
								<output> -1.0201897621154785 </output>
							</split>
							<split pos="right">
								<feature> 1 </feature>
								<threshold> 8.211103 </threshold>
								<split pos="left">
									<output> 1.1947910785675049 </output>
								</split>
								<split pos="right">
									<output> -1.3900814056396484 </output>
								</split>
							</split>
						</split>
					</split>
					<split pos="right">
						<feature> 4 </feature>
						<threshold> 10.768222 </threshold>
						<split pos="left">
							<feature> 1 </feature>
